{
  "feature_names": [
    "age",
    "pre_icu_hours",
    "los_days",
    "gender_male",
    "emergency_flag",
    "unit_micu",
    "unit_sicu",
    "unit_ccu",
    "unit_cvicu",
    "unit_nicu",
    "unit_tsicu",
    "unit_micu_sicu",
    "fio2_delta",
    "gcs_eye_delta",
    "gcs_motor_delta",
    "gcs_verb_delta",
    "hr_delta",
    "map_delta",
    "peep_delta",
    "rr_delta",
    "sbp_delta",
    "spo2_delta",
    "temp_c_delta",
    "fio2_first",
    "gcs_eye_first",
    "gcs_motor_first",
    "gcs_verb_first",
    "hr_first",
    "map_first",
    "peep_first",
    "rr_first",
    "sbp_first",
    "spo2_first",
    "temp_c_first",
    "fio2_last",
    "gcs_eye_last",
    "gcs_motor_last",
    "gcs_verb_last",
    "hr_last",
    "map_last",
    "peep_last",
    "rr_last",
    "sbp_last",
    "spo2_last",
    "temp_c_last",
    "fio2_max",
    "gcs_eye_max",
    "gcs_motor_max",
    "gcs_verb_max",
    "hr_max",
    "map_max",
    "peep_max",
    "rr_max",
    "sbp_max",
    "spo2_max",
    "temp_c_max",
    "fio2_mean",
    "gcs_eye_mean",
    "gcs_motor_mean",
    "gcs_verb_mean",
    "hr_mean",
    "map_mean",
    "peep_mean",
    "rr_mean",
    "sbp_mean",
    "spo2_mean",
    "temp_c_mean",
    "fio2_min",
    "gcs_eye_min",
    "gcs_motor_min",
    "gcs_verb_min",
    "hr_min",
    "map_min",
    "peep_min",
    "rr_min",
    "sbp_min",
    "spo2_min",
    "temp_c_min",
    "fio2_n_obs",
    "gcs_eye_n_obs",
    "gcs_motor_n_obs",
    "gcs_verb_n_obs",
    "hr_n_obs",
    "map_n_obs",
    "peep_n_obs",
    "rr_n_obs",
    "sbp_n_obs",
    "spo2_n_obs",
    "temp_c_n_obs",
    "fio2_std",
    "gcs_eye_std",
    "gcs_motor_std",
    "gcs_verb_std",
    "hr_std",
    "map_std",
    "peep_std",
    "rr_std",
    "sbp_std",
    "spo2_std",
    "temp_c_std",
    "temp_c_was_missing",
    "sbp_was_missing",
    "rr_was_missing",
    "gcs_eye_was_missing",
    "fio2_was_missing",
    "hr_was_missing",
    "map_was_missing",
    "gcs_verb_was_missing",
    "peep_was_missing",
    "gcs_motor_was_missing",
    "spo2_was_missing",
    "lab_bicarbonate",
    "lab_bilirubin",
    "lab_bun",
    "lab_creatinine",
    "lab_glucose",
    "lab_hemoglobin",
    "lab_inr",
    "lab_lactate",
    "lab_paco2",
    "lab_pao2",
    "lab_ph",
    "lab_platelets",
    "lab_potassium",
    "lab_sodium",
    "lab_wbc",
    "lab_lactate_was_missing",
    "lab_creatinine_was_missing",
    "lab_bun_was_missing",
    "lab_wbc_was_missing",
    "lab_hemoglobin_was_missing",
    "lab_platelets_was_missing",
    "lab_sodium_was_missing",
    "lab_potassium_was_missing",
    "lab_bicarbonate_was_missing",
    "lab_bilirubin_was_missing",
    "lab_inr_was_missing",
    "lab_ph_was_missing",
    "lab_pao2_was_missing",
    "lab_paco2_was_missing",
    "lab_glucose_was_missing",
    "total_input_ml",
    "total_urine_ml",
    "urine_n_obs",
    "fluid_balance_ml",
    "urine_rate_ml_hr",
    "fluid_negative_flag",
    "oliguria_flag",
    "vaso_flag",
    "vaso_max_rate"
  ],
  "standardizer": {
    "mean": [
      63.112122728030684,
      57.161948974487245,
      3.694002918125729,
      0.5415707853926963,
      0.15134233783558446,
      0.0,
      0.0,
      0.0,
      0.0,
      0.0,
      0.0,
      0.0,
      -0.0007540436885109221,
      0.16071369017842255,
      0.23751875937968983,
      0.21524095381023844,
      -5.639686509921628,
      -2.6157745539436386,
      -0.021073870268467566,
      -0.2687343671835918,
      -5.192562948140737,
      -0.40393530098382524,
      0.8035617808904424,
      0.9993770218442555,
      3.557311989327997,
      5.542337835584459,
      4.157211939302985,
      89.55767883941971,
      84.04795731198932,
      5.1427347006836746,
      19.741704185426045,
      126.4184092046023,
      96.63278305819577,
      36.10411205602802,
      0.9986229781557445,
      3.71802567950642,
      5.779856594964149,
      4.372452893113223,
      83.9159579789895,
      80.65689511422377,
      5.121660830415208,
      19.472969818242454,
      121.17912289478072,
      96.2312156078039,
      37.099903284975824,
      0.9995617808904452,
      3.877105219276305,
      5.8732366183091544,
      4.532566283141571,
      103.58940470235117,
      102.08450892112722,
      5.233653493413374,
      28.285909621477405,
      145.69074537268634,
      99.3148907787227,
      37.40663431715858,
      0.9990805046462626,
      3.6426342936835217,
      5.7056593220078415,
      4.264010782034525,
      84.91535283350821,
      80.6189036188869,
      5.148216660478602,
      19.383732191281794,
      120.71318655204968,
      96.46957936551449,
      36.7859445024258,
      0.9977345339336336,
      3.273336668334167,
      5.392562948140737,
      3.944805736201434,
      70.86503251625813,
      63.569984992496245,
      5.016508254127063,
      12.437718859429715,
      97.68630848090712,
      91.3698515924629,
      35.895973319993324,
      5.832416208104052,
      8.104485576121395,
      8.07543771885943,
      8.091245622811405,
      26.64312156078039,
      22.72522928130732,
      4.984258796064699,
      26.355177588794398,
      21.63658495914624,
      26.191795897948975,
      15.98679339669835,
      0.0008714773914509715,
      0.26100652958376735,
      0.21086796574108566,
      0.2652214162964944,
      8.653436679930769,
      9.936028416394304,
      0.09519272177466233,
      3.8759489489872876,
      12.804077644789968,
      2.033846304236636,
      0.5252909737451892,
      0.9611472402868101,
      0.04672336168084042,
      0.0045356011339002834,
      0.0025012506253126563,
      0.7167250291812572,
      0.002034350508587627,
      0.775287643821911,
      0.002701350675337669,
      0.8431215607803902,
      0.0029348007337001835,
      0.002367850591962648,
      23.870742037685506,
      1.1467800566950144,
      25.110988827747207,
      1.3165482741370684,
      133.39339669834916,
      10.608974487243621,
      1.3886653326663332,
      1.6037895614473903,
      40.98315824578956,
      82.88367517091879,
      7.387632149408037,
      215.91392362848092,
      4.1166183091545765,
      138.29878272469568,
      11.238756378189095,
      0.5615140903785226,
      0.021110555277638818,
      0.021510755377688845,
      0.027280306820076705,
      0.027447056861764216,
      0.02688010672002668,
      0.02094380523595131,
      0.020877105219276305,
      0.021644155411038854,
      0.5333333333333333,
      0.19299649824912457,
      0.5444388861097216,
      0.5702851425712856,
      0.5703518425879607,
      0.0223778555944639,
      3204.7391142834736,
      1816.223815241056,
      11.302317825579456,
      984.9507817959466,
      75.67599230171065,
      0.3908954477238619,
      0.18662664665666168,
      0.012572953143238285,
      0.029362212367105133
    ],
    "scale": [
      17.1589388571758,
      182.17588560483156,
      5.000460556804667,
      0.4982688730011482,
      0.3583822465106834,
      1.0,
      1.0,
      1.0,
      1.0,
      1.0,
      1.0,
      1.0,
      0.02857172041273965,
      0.837954916322213,
      1.1501918030406142,
      1.1325792970335418,
      18.031670555070868,
      17.495433396062456,
      0.8308720046974786,
      6.942851446541653,
      22.68228488803069,
      4.136077621393796,
      0.32572437465463355,
      0.021844694724627356,
      0.9172854978432857,
      1.2629651398183492,
      1.4676876884563284,
      20.93877024081977,
      15.460655996909468,
      0.951176303320331,
      6.170239262525879,
      23.592525473825077,
      3.526774476897916,
      0.37491738775390454,
      0.03278392113538071,
      0.684298450623451,
      0.8336717681960659,
      1.2746348038812334,
      18.007404230124955,
      12.394520965847136,
      1.0404232872553245,
      5.579059749494867,
      20.926386561587748,
      3.085518803407234,
      0.33765662535955904,
      0.018470660771920354,
      0.49172348641757335,
      0.616140320046305,
      1.1450781208146714,
      21.191607951881746,
      19.89111753417023,
      1.2181229770101671,
      6.638295216056873,
      23.408433382823443,
      1.1372217662280308,
      0.3470263940519114,
      0.02166864614669932,
      0.6537043553465108,
      0.8198198033048273,
      1.26374886188385,
      16.388595922765738,
      7.6958551273064035,
      0.9492505495338779,
      3.976686437684746,
      17.26416073511221,
      1.9137749438977598,
      0.29776976673133215,
      0.041855419813379834,
      1.0057983084743036,
      1.4217883547293533,
      1.5616682918300222,
      15.59586189797196,
      10.224720958333261,
      0.9468945304341555,
      3.9451886633122375,
      17.031224371738574,
      6.0054178913720255,
      0.3702491812054301,
      1.5899980382812733,
      5.547261271126391,
      5.544482179366858,
      5.5426924070129475,
      8.53257310913078,
      7.491998208324208,
      1.124300240404391,
      8.692741828841811,
      8.254503657113887,
      8.548602538566035,
      1.9618061443077586,
      0.018512228425201494,
      0.37968732070750905,
      0.5605672744374026,
      0.5484418143623326,
      4.576470575996312,
      5.555405219796163,
      0.4622612034690309,
      1.4617426866705319,
      5.209881642950386,
      1.2570714365148203,
      0.1091618975756412,
      0.1932439462851529,
      0.21104570394604527,
      0.06719396889791854,
      0.04994991862477885,
      0.45058879449713696,
      0.045057873081136846,
      0.417392756476416,
      0.05190427130657476,
      0.3636861208894684,
      0.054094248107850205,
      0.04860292044246715,
      4.410722008239962,
      3.037826621524071,
      21.037730724337248,
      1.361124518498045,
      54.20147430030268,
      2.1351194813833367,
      0.6790322245186485,
      0.8443426241587259,
      7.713531343037862,
      39.834895314814666,
      0.046410125010074556,
      109.73760217853975,
      0.553728824447299,
      4.965427264557219,
      8.446647725562173,
      0.4962015887569315,
      0.14375291208705504,
      0.14507943610577648,
      0.16289902295556957,
      0.16338211631445865,
      0.16173301018266695,
      0.14319623688557548,
      0.1429729054644256,
      0.1455186790332487,
      0.4988876515698588,
      0.39465028811936814,
      0.4980212700290292,
      0.4950353509939811,
      0.4950258763382767,
      0.14790905034330123,
      2353.359809060236,
      1258.375314073045,
      6.683912549836186,
      2712.2392146090306,
      52.43230475304354,
      0.4879510187228052,
      0.38961152628528734,
      0.11142205343869867,
      0.5218502644641064
    ]
  },
  "model": {
    "learning_rate": 0.05,
    "epochs": 500,
    "l2": 0.001,
    "weights": [
      0.0879510701411694,
      0.018578680516085178,
      0.5337368262354567,
      0.03899720697117692,
      0.1997753822479797,
      0.0,
      0.0,
      0.0,
      0.0,
      0.0,
      0.0,
      0.0,
      -0.03553591014807356,
      -0.055212731605791904,
      -0.07486856553671774,
      -0.12985212988547185,
      0.08805882461176934,
      0.037034800091204155,
      -0.0006370388182816101,
      0.041521050904819445,
      -0.0485305692214445,
      -0.0480160844646282,
      -0.022184746592654733,
      0.022731986645939423,
      -0.056557119330113086,
      0.05300349669785832,
      0.03903453953571673,
      -0.0011290459734267526,
      -0.06525453751700541,
      -0.022539695392375818,
      -0.0007567118571674365,
      0.021189242240143086,
      -0.03929557947950222,
      0.0021423225375446797,
      -0.015823268316684846,
      -0.14342397701549553,
      -0.022996630687583883,
      -0.0704337592300891,
      0.08713211498832363,
      -0.026561173096241036,
      -0.021114984766685878,
      0.05083390532797577,
      -0.0286294611007124,
      -0.10778050293535386,
      -0.022291362825088604,
      -0.019617151607521754,
      0.0015600412329557338,
      -0.06795806582711379,
      -0.031374476273798683,
      0.09047803469245669,
      -0.007961068952351038,
      -0.015369494170200738,
      -0.0219018900793634,
      0.021837788227103874,
      0.016700059039717875,
      -0.029044151055568134,
      0.00825601990944764,
      -0.03136029605661411,
      0.03424779558037044,
      0.05341617266683407,
      -0.04110091926239346,
      0.0723545347682063,
      -0.06887124886580501,
      0.17530187301504063,
      -0.0869893582906592,
      0.03374460075674097,
      -0.003965827404064936,
      0.0023604492034844833,
      0.0012569720718650463,
      0.007373275819233471,
      -0.04301633570276681,
      0.014788322685285722,
      0.06493977380623511,
      0.06687593515213719,
      0.040988665692837885,
      -0.05321890358623983,
      -0.0518259219595251,
      0.010015189529630167,
      0.10187403157759135,
      -0.02618636261545992,
      -0.026871658068694224,
      -0.0028655416279047994,
      -0.05828634996095838,
      0.007049741542474122,
      0.018126797891125302,
      0.06516422697372473,
      0.07274270465616103,
      0.0018684978978553218,
      -0.02029852323934327,
      -0.01675776039070712,
      0.0060220144922887775,
      -0.11052698543118052,
      -0.019718776483264394,
      -0.05092803948118337,
      -0.017201418473584494,
      -0.10798117537097404,
      -0.0227559636590233,
      0.03587756072260395,
      0.11635230143350277,
      -0.0053000736737321965,
      -0.02856254040918032,
      -0.008364489117847793,
      0.02018979615931997,
      -0.005002162460456953,
      -0.2634120563582599,
      -0.1068922044880356,
      -0.07600769573640333,
      0.09523245489263168,
      0.09394197847107263,
      -0.07761461040074205,
      0.09518215560894065,
      0.11494828193867399,
      0.04499530642799043,
      0.03182181647786315,
      0.3605050285662468,
      -0.04674480240834457,
      0.017216995143018565,
      0.052663965647279674,
      0.18732925511871956,
      0.005795234119309172,
      0.1058684832177466,
      -0.02656779688935707,
      0.0036631543668075375,
      0.08410201062849498,
      -0.00688980073266343,
      0.040308488621812494,
      0.018286398600636865,
      -0.018165463040054414,
      -0.023775504652615295,
      0.03580580364074817,
      0.061405208422670304,
      -0.003386029722057236,
      0.03547662343551679,
      0.05522826680360155,
      0.00636028212710082,
      -0.0458644106720339,
      -0.12148117659330661,
      -0.11449449789010477,
      0.01672904786670316,
      0.014891298412849568,
      0.02019553522276527,
      -0.47847006379414,
      0.0716520916184815,
      0.1939278996802182,
      0.4687787847142498,
      0.07165209161848131,
      -0.23963602250793706,
      0.13649263711353718,
      -0.07128683749192534,
      -0.007217308839949836
    ],
    "bias": -0.6898308279365972
  },
  "threshold": 0.5716018810950224,
  "metrics": {
    "train": {
      "auroc": 0.8342499406643629,
      "auprc": 0.17696011825079785,
      "precision": 0.14762076423936554,
      "recall": 0.65625,
      "specificity": 0.8354386331210635,
      "accuracy": 0.8279806569951642,
      "f1": 0.24102413184226015,
      "brier": 0.16719100457477323
    },
    "validation": {
      "auroc": 0.7932015945581837,
      "auprc": 0.11721316201922939,
      "precision": 0.11443210930828351,
      "recall": 0.5726495726495726,
      "specificity": 0.8325258397932817,
      "accuracy": 0.823062558356676,
      "f1": 0.1907473309608541,
      "brier": 0.16918080654987908,
      "calibration_curve": [
        {
          "bin_start": 0.0,
          "bin_end": 0.1,
          "n": 566,
          "mean_pred": 0.07162316082021189,
          "mean_true": 0.0
        },
        {
          "bin_start": 0.1,
          "bin_end": 0.2,
          "n": 1401,
          "mean_pred": 0.15023485361655733,
          "mean_true": 0.007137758743754461
        },
        {
          "bin_start": 0.2,
          "bin_end": 0.30000000000000004,
          "n": 1310,
          "mean_pred": 0.24802470255316691,
          "mean_true": 0.015267175572519083
        },
        {
          "bin_start": 0.30000000000000004,
          "bin_end": 0.4,
          "n": 914,
          "mean_pred": 0.3458926489851504,
          "mean_true": 0.02188183807439825
        },
        {
          "bin_start": 0.4,
          "bin_end": 0.5,
          "n": 691,
          "mean_pred": 0.4474049602053289,
          "mean_true": 0.041968162083936326
        },
        {
          "bin_start": 0.5,
          "bin_end": 0.6000000000000001,
          "n": 523,
          "mean_pred": 0.5499529275847809,
          "mean_true": 0.06309751434034416
        },
        {
          "bin_start": 0.6000000000000001,
          "bin_end": 0.7000000000000001,
          "n": 368,
          "mean_pred": 0.6470103541182108,
          "mean_true": 0.08423913043478261
        },
        {
          "bin_start": 0.7000000000000001,
          "bin_end": 0.8,
          "n": 267,
          "mean_pred": 0.7454703675585406,
          "mean_true": 0.12359550561797752
        },
        {
          "bin_start": 0.8,
          "bin_end": 0.9,
          "n": 214,
          "mean_pred": 0.8470983012482174,
          "mean_true": 0.13551401869158877
        },
        {
          "bin_start": 0.9,
          "bin_end": 1.0,
          "n": 172,
          "mean_pred": 0.947653620838585,
          "mean_true": 0.1686046511627907
        }
      ]
    },
    "test": {
      "auroc": 0.8135358446481461,
      "auprc": 0.15221064576728524,
      "precision": 0.13690952762209768,
      "recall": 0.6380597014925373,
      "specificity": 0.8249431633647288,
      "accuracy": 0.8171490818549642,
      "f1": 0.22544495715227422,
      "brier": 0.17252470203187792,
      "calibration_curve": [
        {
          "bin_start": 0.0,
          "bin_end": 0.1,
          "n": 529,
          "mean_pred": 0.07125528787890796,
          "mean_true": 0.0
        },
        {
          "bin_start": 0.1,
          "bin_end": 0.2,
          "n": 1323,
          "mean_pred": 0.1506949335772812,
          "mean_true": 0.003779289493575208
        },
        {
          "bin_start": 0.2,
          "bin_end": 0.30000000000000004,
          "n": 1297,
          "mean_pred": 0.2480798424859466,
          "mean_true": 0.016191210485736313
        },
        {
          "bin_start": 0.30000000000000004,
          "bin_end": 0.4,
          "n": 948,
          "mean_pred": 0.3464476330306681,
          "mean_true": 0.028481012658227847
        },
        {
          "bin_start": 0.4,
          "bin_end": 0.5,
          "n": 712,
          "mean_pred": 0.4470805491705587,
          "mean_true": 0.032303370786516857
        },
        {
          "bin_start": 0.5,
          "bin_end": 0.6000000000000001,
          "n": 521,
          "mean_pred": 0.55006137522735,
          "mean_true": 0.0690978886756238
        },
        {
          "bin_start": 0.6000000000000001,
          "bin_end": 0.7000000000000001,
          "n": 392,
          "mean_pred": 0.6467636551584779,
          "mean_true": 0.11734693877551021
        },
        {
          "bin_start": 0.7000000000000001,
          "bin_end": 0.8,
          "n": 320,
          "mean_pred": 0.7483046273565616,
          "mean_true": 0.121875
        },
        {
          "bin_start": 0.8,
          "bin_end": 0.9,
          "n": 219,
          "mean_pred": 0.8488003321622264,
          "mean_true": 0.1415525114155251
        },
        {
          "bin_start": 0.9,
          "bin_end": 1.0,
          "n": 165,
          "mean_pred": 0.9468320009475685,
          "mean_true": 0.24242424242424243
        }
      ]
    }
  }
}